%YAML:1.0
---
ovinos: !!opencv-object-detector-hog
   winSize: [ 128, 64 ]
   blockSize: [ 16, 16 ]
   blockStride: [ 8, 8 ]
   cellSize: [ 8, 8 ]
   nbins: 9
   derivAperture: 1
   winSigma: 4.
   histogramNormType: 0
   L2HysThreshold: 2.0000000000000001e-01
   gammaCorrection: 1
   nlevels: 64
   signedGradient: 0
   SVMDetector: [ 1.09560373e-04, 2.16239900e-03, 7.32504018e-03,
       1.38858361e-02, 9.25111212e-03, -1.45816931e-03, -7.68778846e-03,
       -6.97846990e-03, 6.47101412e-03, 7.94504117e-03, 1.26582338e-02,
       8.35290551e-03, 7.50206690e-03, -5.35957236e-03, -1.35339471e-03,
       -2.06559096e-02, -2.51166429e-02, 4.68140279e-05, 8.37543420e-03,
       1.34668676e-02, 1.78117529e-02, 1.18711526e-02, 4.96461987e-03,
       -5.39918011e-03, -7.49309221e-03, -1.06632314e-03, 1.13102300e-02,
       2.01763548e-02, 2.26883702e-02, 1.34130334e-02, 2.45895004e-03,
       -1.87515989e-02, -1.30361086e-02, -9.85084940e-03,
       -9.12042055e-03, 1.80630628e-02, 2.06847955e-02, 1.50437802e-02,
       8.28000437e-03, 8.26620124e-03, -1.28130317e-02, 3.10409116e-03,
       -1.37743801e-02, -2.15738919e-02, 9.69975349e-03, 3.20803411e-02,
       1.84142161e-02, -4.51831007e-03, -3.63583723e-03, -1.10559491e-02,
       9.27015394e-03, -1.55023485e-02, -1.28817456e-02, 1.64383594e-02,
       2.94584353e-02, 3.14909481e-02, 1.02823982e-02, 3.25232814e-03,
       -1.57882255e-02, -7.79826753e-03, -9.03490838e-03,
       -4.15931828e-03, 2.33065579e-02, 3.11669540e-02, 3.47894654e-02,
       2.27527507e-03, -9.48910229e-03, -1.85422096e-02, -4.39031515e-03,
       -2.57114694e-02, -1.65326037e-02, 4.02101921e-03, 2.91704480e-02,
       2.16578413e-02, -6.86798710e-03, -1.05792480e-02, 4.09845077e-03,
       1.96638610e-03, -1.03581958e-02, -1.14098685e-02, 1.15169575e-02,
       1.85532738e-02, 1.50080193e-02, 5.16026048e-04, -1.32500939e-03,
       6.89108996e-03, -5.77204442e-03, -1.72451250e-02, -1.98580623e-02,
       8.09781440e-03, 3.02787106e-02, 3.06154117e-02, 1.46971783e-03,
       -5.92694804e-03, -2.08822265e-03, -8.82498734e-03,
       -2.89432164e-02, -2.69355550e-02, 7.05404719e-03, 2.67244447e-02,
       2.27664653e-02, 2.22470891e-03, 6.44929335e-03, 5.37493685e-03,
       -6.25081453e-03, -2.33958978e-02, -1.56543888e-02, 1.45765413e-02,
       1.87343974e-02, 4.60753497e-03, 1.81139132e-03, 1.03551466e-02,
       -7.20262388e-03, -7.63491169e-03, -1.96537171e-02,
       -1.71486698e-02, 1.12578357e-02, 2.03717742e-02, 1.72051881e-02,
       8.36962555e-03, 2.02677101e-02, -5.81977749e-03, -1.15055041e-02,
       -2.37144325e-02, -2.12087166e-02, 7.76022859e-03, 1.63159762e-02,
       9.18192882e-03, 1.59190292e-03, 1.96583960e-02, 7.56171125e-04,
       -7.88220856e-03, -1.97827127e-02, -1.20374765e-02, 1.05306683e-02,
       1.89842954e-02, 1.90664660e-02, 1.34058101e-02, 2.69028023e-02,
       8.11811443e-03, -1.41413612e-02, -2.46244185e-02, -1.17877908e-02,
       1.70888044e-02, 4.39903606e-03, 2.95045059e-02, 1.72842667e-02,
       1.90114826e-02, -1.28028747e-02, -7.57538527e-03, -2.16390360e-02,
       -1.48840500e-02, -1.49865868e-03, 3.98466876e-03, 3.07419263e-02,
       1.98607184e-02, 2.04331111e-02, 4.51929634e-03, -2.21066433e-03,
       -1.96585841e-02, 2.25174148e-03, -2.79113255e-03, 1.54799838e-02,
       2.19100695e-02, 5.50884474e-03, 1.78523064e-02, -5.04269032e-03,
       -1.20802773e-02, -2.09087469e-02, -9.16259456e-03, 9.38556716e-03,
       2.16400512e-02, 3.11575178e-02, 8.43769312e-03, 1.33496663e-02,
       -6.22536568e-03, -6.65161666e-03, -2.61965320e-02,
       -4.25058836e-03, 3.49253928e-03, 1.95957683e-02, 2.01482847e-02,
       8.79660342e-03, 1.76265184e-02, -5.73081151e-03, -7.76977185e-03,
       -2.21166722e-02, 1.18762674e-02, 9.80224460e-03, 3.25279050e-02,
       2.39451863e-02, 2.03073863e-03, 1.37005337e-02, -4.18808637e-03,
       8.57869338e-04, -1.67910736e-02, 1.39659727e-02, 1.02484552e-02,
       1.41739361e-02, 2.88211089e-02, 1.03408573e-02, 1.77117661e-02,
       -1.02621336e-02, -1.42073128e-02, -3.42715755e-02,
       -5.85838454e-03, 1.55042938e-03, 2.22490728e-02, 2.17059031e-02,
       4.73456597e-03, 1.42513271e-02, -1.37738539e-02, -8.45257845e-03,
       -1.92315783e-02, 5.36124920e-03, 5.04550105e-03, 1.79143585e-02,
       1.56075498e-02, -3.60276434e-03, -2.55656801e-03, -1.45553593e-02,
       7.63870822e-03, -1.58089530e-02, 5.79192443e-03, 1.43377362e-02,
       9.27595887e-03, 1.09599512e-02, 8.40643421e-03, 2.22423598e-02,
       1.47695951e-02, 1.39620928e-02, -1.08335884e-02, 6.35761302e-04,
       9.30628739e-03, 9.99264698e-03, 8.90339166e-03, -8.62102024e-03,
       4.43536974e-03, -1.63933840e-02, 4.71678702e-03, -1.33466702e-02,
       6.88455952e-03, 9.83393472e-03, 1.19478535e-03, 9.41633992e-03,
       -1.81641860e-03, 1.61808766e-02, 4.81402967e-03, 9.00694635e-03,
       -8.33968259e-03, 7.94954132e-03, 1.84564553e-02, 1.09361177e-02,
       1.06937438e-02, 1.11008007e-02, 4.16184869e-03, -1.39463954e-02,
       -6.50104182e-03, -6.69100229e-03, 2.12355377e-03, 1.18415160e-02,
       1.99027937e-02, 1.98937152e-02, 9.51106753e-03, -6.61740429e-04,
       -3.00528780e-02, -1.99546684e-02, -3.10762320e-03, 3.94367939e-03,
       1.85791645e-02, 8.89521185e-03, 5.93315903e-03, 1.42955361e-02,
       7.78422505e-03, -1.05134258e-02, -6.22578897e-03, -9.82663594e-03,
       -3.11503513e-03, 7.90700666e-04, 8.37090425e-03, 1.68862399e-02,
       4.78992984e-03, -1.74299930e-03, -2.76154894e-02, -1.57557502e-02,
       -2.23985873e-03, 3.72391776e-03, 9.14056727e-04, 1.89743247e-02,
       1.34607693e-02, -2.28557573e-03, -4.46472643e-03, -2.00879984e-02,
       -7.71963876e-03, -1.29295466e-03, 8.13654531e-03, 1.73423551e-02,
       1.60442777e-02, 1.43831037e-02, -1.19300364e-02, -1.45492132e-03,
       -1.02299294e-02, -1.05323314e-04, -2.34839544e-02,
       -1.36828749e-02, 2.23266450e-03, 1.08286850e-02, 9.05947480e-03,
       -5.82497241e-03, -5.49959159e-03, -1.94980800e-02,
       -4.44383780e-03, 6.38872501e-04, 8.62588920e-03, 6.21854374e-03,
       1.39225684e-02, 1.75888359e-03, -1.20397462e-02, 1.18116708e-02,
       -2.55567022e-03, 9.34245810e-03, -7.97449984e-03, -9.87253804e-03,
       1.52935209e-02, 2.57232729e-02, 1.58156566e-02, -1.44054247e-02,
       -2.53015640e-03, -1.88176055e-02, -1.53169353e-02,
       -3.17413434e-02, -1.50284125e-02, 1.05824452e-02, 3.15921381e-02,
       6.56270748e-03, -1.35648232e-02, 1.65507267e-03, -6.69741211e-03,
       -1.45911621e-02, -2.82881968e-02, -2.07059439e-02, 1.79142188e-02,
       2.90963463e-02, 1.84158061e-03, -1.37955174e-02, 7.65344687e-03,
       -5.60250366e-03, -7.34858308e-03, -1.78154036e-02,
       -9.87567753e-03, 1.85657479e-02, 3.09224613e-02, 2.80173542e-03,
       -1.37204360e-02, 6.55283500e-03, -2.09060200e-02, -8.76475871e-03,
       -4.29824926e-03, -4.12380975e-03, 1.50733246e-02, 2.28097383e-02,
       6.31847745e-03, -7.90099800e-03, 6.13397686e-03, -1.09451497e-02,
       -6.97364518e-03, -1.40516069e-02, -1.15027865e-02, 1.34248072e-02,
       1.49358297e-02, 1.67014357e-02, 5.69866784e-03, 7.55176740e-03,
       -1.57188922e-02, -1.68506820e-02, -1.62625331e-02,
       -2.49617873e-03, 1.56951156e-02, 2.76386682e-02, 8.32302961e-03,
       -8.82736593e-03, -5.93699189e-03, -3.29729319e-02,
       -3.88200651e-03, -2.35046633e-03, 4.71051876e-03, 1.65812504e-02,
       1.73566975e-02, 3.87281482e-03, -8.22695624e-03, -7.80456560e-03,
       -3.29164900e-02, -1.05438000e-02, -1.19755203e-02, 5.39950049e-03,
       2.82274056e-02, 1.27506237e-02, 1.05719678e-02, 3.54532339e-03,
       9.36158653e-03, -1.23201543e-02, -1.66132301e-02, -1.23817818e-02,
       -5.58444481e-05, 7.08704488e-03, 3.24402824e-02, 2.52516475e-02,
       3.20762163e-03, 3.50856967e-03, -1.63432322e-02, -1.44394031e-02,
       -1.45497462e-02, -2.21722177e-04, 8.14621337e-03, 2.25824993e-02,
       8.18322413e-03, -1.15360622e-03, 4.15281579e-03, -2.44433545e-02,
       -1.09766293e-02, -1.65067781e-02, 1.98748661e-04, 1.60948690e-02,
       3.48180905e-02, 1.78281236e-02, -5.04129101e-03, 5.21051139e-03,
       -2.05382276e-02, -4.32794262e-03, -7.06357602e-03, 1.15880072e-02,
       2.00517960e-02, 1.76346935e-02, 2.28128657e-02, 4.97569237e-03,
       5.83121646e-03, -2.03948747e-02, -1.17201470e-02, -2.26342902e-02,
       -7.02930661e-03, 1.75533514e-03, 2.37754546e-02, 1.46208117e-02,
       -4.22310364e-03, 1.24065308e-02, -1.15316166e-02, -1.06051415e-02,
       -1.50131444e-02, -1.00302109e-02, 8.47831182e-03, 3.70707624e-02,
       2.00563204e-02, 4.62707551e-03, 2.78346357e-03, -9.06772166e-03,
       -2.19983794e-03, -8.99203215e-03, 7.24900654e-03, 2.57147308e-02,
       3.34577374e-02, 2.93243248e-02, 1.74870156e-02, 1.08918082e-02,
       -9.98153538e-03, 9.19161830e-05, -1.48025975e-02, -6.18274324e-03,
       1.43477134e-02, 2.25709975e-02, 1.16615733e-02, -1.14139244e-02,
       7.45265698e-03, -1.11577325e-02, 1.51840551e-03, -7.98837468e-03,
       -4.43306565e-03, 1.02970973e-02, 1.91310458e-02, 1.05555337e-02,
       -7.46965129e-03, -2.26904172e-04, 1.21454177e-02, 5.69820497e-03,
       -5.58152748e-03, -1.29323150e-03, 1.47674670e-02, 2.98216883e-02,
       1.91976242e-02, 3.12785245e-03, 3.31735448e-03, -2.93512810e-02,
       -8.78661929e-04, -1.53159713e-02, -3.54439393e-03, 1.61160287e-02,
       3.05132698e-02, 6.42874045e-03, -1.14183165e-02, -6.04907470e-03,
       -2.06566416e-03, 8.00821744e-03, -9.35731805e-04, 2.59572291e-03,
       1.92686729e-02, 3.54000367e-03, 2.93943076e-03, 1.21675963e-02,
       6.90238131e-03, -5.87697932e-03, -3.25949572e-04, -1.23120965e-02,
       -1.19277705e-02, 2.91810068e-03, -1.91250874e-03, 7.43727945e-03,
       -1.14998443e-03, -6.76101027e-03, -1.65995341e-02,
       -6.06698589e-03, -4.03591525e-03, 2.73248600e-03, -4.27547190e-03,
       1.85112897e-02, 4.83825477e-03, 7.78164575e-03, 4.08535125e-03,
       -8.46504327e-03, 3.36732832e-03, -3.89226270e-03, -2.91313231e-03,
       2.33162232e-02, 1.71363577e-02, 1.01134076e-03, -5.58248162e-03,
       -2.24582176e-03, -1.24033112e-02, 5.77416969e-03, -4.55958070e-03,
       7.98817072e-03, 1.73055921e-02, 1.73413269e-02, 1.35178333e-02,
       -1.99312321e-03, -6.54125819e-03, -2.04083286e-02,
       -5.43075660e-03, -6.29328284e-03, 8.36996071e-04, 4.18498274e-03,
       1.80057939e-02, 6.10816898e-03, -1.10668689e-02, 1.11381768e-03,
       -5.81099698e-03, 2.02366430e-03, -1.16627710e-02, -8.55852850e-03,
       9.85835772e-03, 2.46837828e-02, 5.80703327e-03, -1.05301095e-02,
       -4.76919115e-03, -3.54861654e-03, -4.18105192e-05,
       -7.50515098e-03, 4.08253260e-03, 1.09935440e-02, 1.75006539e-02,
       6.80439174e-03, -1.43342307e-02, -1.00739673e-02, -5.57725877e-03,
       -9.86718945e-03, -1.18941916e-02, -6.63610315e-03, 1.15331588e-02,
       7.57500157e-03, -1.33711277e-02, -2.10206881e-02, 2.00357870e-03,
       2.53710104e-03, -3.75125115e-03, -1.09447287e-02, -4.70031938e-03,
       5.82090020e-03, -1.70908577e-03, -8.88309535e-03, -1.74954403e-02,
       -1.98437599e-03, -1.08271986e-02, -4.41934244e-04, 4.38651908e-03,
       8.01782217e-03, 2.52994732e-03, 1.30574061e-02, -3.89855634e-03,
       -2.06184555e-02, -1.00491149e-02, -8.65309592e-03,
       -1.60021093e-02, -1.21786240e-02, -2.10593524e-03, 1.04077188e-02,
       7.62418204e-04, -1.34541709e-02, -2.21380237e-02, -7.24213617e-03,
       -6.22459082e-03, 1.30035961e-02, 1.04378602e-02, 1.52302794e-02,
       2.34262203e-03, 7.23743392e-03, -1.03839906e-03, -1.23569332e-02,
       -7.31384242e-03, -1.69829223e-02, 5.52103436e-03, 1.85408909e-03,
       1.07694706e-02, 1.24578206e-02, 1.91315524e-02, -2.41307123e-03,
       -1.06571829e-02, -9.82269179e-03, -2.38735676e-02,
       -9.23105516e-03, -1.99098308e-02, -2.04487704e-03, 2.40012724e-02,
       9.78732295e-03, -1.29847275e-02, -1.91998035e-02, -6.32062089e-03,
       -3.24237812e-03, 1.52871581e-02, 5.13415318e-03, 1.49696497e-02,
       1.69888847e-02, 1.21199833e-02, 2.26838654e-03, -5.09419618e-03,
       -1.46915414e-03, -2.42638309e-02, 3.64393159e-03, -1.25330789e-02,
       7.73034710e-03, 2.29077116e-02, 2.87855696e-02, 8.13361537e-03,
       5.57261193e-03, -4.77959169e-03, -3.39481719e-02, -6.47237618e-03,
       -1.67444386e-02, -7.56911933e-03, 1.98335759e-02, 3.14882211e-02,
       2.16967743e-02, -2.96702306e-03, -8.11976939e-03, -2.06220355e-02,
       1.05885195e-03, -5.63220959e-03, 1.81375328e-03, 1.51592307e-02,
       1.58738941e-02, 1.67443864e-02, 7.96811469e-03, -3.73491179e-03,
       -4.15837727e-02, -1.48548733e-03, -1.26652261e-02,
       -6.06102869e-03, 1.24055743e-02, 2.10129842e-02, 2.70764977e-02,
       7.77234929e-03, -1.32119646e-02, -1.43270390e-02, 3.88528802e-03,
       5.48032159e-03, 1.69275911e-03, 1.47650745e-02, 1.83136184e-02,
       9.86338872e-03, -3.10696196e-03, -6.03664340e-03, -4.53388551e-03,
       7.46401679e-03, -4.80581634e-03, 7.83848763e-03, 1.36854453e-02,
       2.01087054e-02, 9.39009339e-03, 7.45793572e-03, -7.88377132e-03,
       -2.10529827e-02, 2.79920618e-03, -1.43828895e-02, 2.79650115e-03,
       1.82914604e-02, 1.13941599e-02, 1.55136185e-02, 5.69482974e-04,
       -1.24431625e-02, -1.43701909e-02, 1.32325413e-02, 1.09340912e-02,
       1.64011624e-02, 9.26702935e-03, 1.00563494e-02, 2.33771675e-03,
       -4.01125522e-03, -7.96967652e-03, -1.78399459e-02, 1.65449257e-03,
       -6.26232568e-03, 1.97907910e-02, 1.44714778e-02, 2.84653269e-02,
       1.53524987e-02, 1.58697600e-03, -4.32717660e-03, -3.19532529e-02,
       3.89687065e-03, -9.96963028e-03, 4.80890926e-03, 2.84166448e-02,
       2.69413292e-02, 4.08919156e-03, -1.00948187e-02, -3.19199375e-04,
       -3.80825251e-03, 1.46297542e-02, 2.65519600e-03, 5.30154118e-03,
       2.06881016e-02, 9.94875561e-03, 3.23179597e-03, -1.27482675e-02,
       -1.38319354e-03, -2.05470715e-02, 4.18305537e-03, -1.32304607e-02,
       1.26339616e-02, 2.81163193e-02, 9.25030652e-03, 5.92165254e-03,
       -1.41278189e-02, 8.65023024e-03, -3.15025961e-03, 3.98927322e-03,
       -1.28297284e-02, -1.29423349e-03, 1.27699636e-02, 1.55057069e-02,
       -2.63462239e-03, -7.48943118e-03, 3.57170822e-03, -4.40868735e-03,
       1.61384887e-04, -9.28751379e-03, 3.00995400e-03, 2.29460206e-02,
       1.71876866e-02, -6.43811980e-03, -1.08626541e-02, -5.76185808e-03,
       -4.61012311e-03, 3.06294602e-03, -1.44656058e-02, -2.08625337e-04,
       1.26798181e-02, 1.51613448e-02, 7.58646289e-03, -5.20424917e-03,
       2.76422966e-03, -3.74349579e-03, -1.63186877e-03, -1.00109717e-02,
       8.24671821e-04, 6.64398586e-03, 1.24914376e-02, 5.54206688e-03,
       -8.65883566e-03, 3.92634049e-03, -1.56912003e-02, 5.73368510e-03,
       -3.04763322e-03, -1.08365645e-03, 1.21024786e-03, 1.32973930e-02,
       -6.07056543e-04, -1.26013858e-03, -3.38794920e-03,
       -1.32614619e-03, -1.55084312e-03, -8.49752873e-03, 3.98590136e-03,
       9.33524780e-03, -4.57258895e-04, 7.99421861e-04, 5.60270669e-03,
       7.98267033e-03, -1.28597673e-03, -1.30744297e-02, -1.88311338e-02,
       -1.16509283e-02, -3.94414784e-03, 8.96748342e-03, 6.22742064e-03,
       3.24122468e-03, -3.16939689e-03, -1.66380368e-02, 9.70980804e-03,
       2.13594316e-03, 2.51730531e-03, 9.83173144e-04, -3.35377897e-03,
       8.57940502e-03, 2.02636681e-02, 1.23983826e-02, -1.21157279e-03,
       -7.21618533e-04, -1.25011588e-02, -7.54181808e-03,
       -3.48904636e-03, -4.29685554e-03, -1.04079093e-03, 8.37464002e-04,
       9.65994876e-03, 4.23354376e-03, -4.02289955e-03, -1.39006414e-02,
       -4.23484016e-03, -2.40933616e-04, 3.76580254e-04, -2.81586731e-03,
       -8.02324060e-03, -4.04067151e-03, 5.14067104e-03, 1.18419761e-02,
       6.04088139e-03, 1.15063861e-02, -2.15494609e-03, -1.79862920e-02,
       -9.88588901e-04, 1.48546966e-02, 1.75457150e-02, 7.94512592e-03,
       6.54600399e-06, -1.05833160e-02, -7.49686442e-04, -2.33981293e-03,
       -1.70051940e-02, 6.36025751e-03, 1.13761844e-02, 7.82156363e-03,
       -1.28076086e-03, 9.32789641e-04, -2.38513481e-03, 4.83834511e-03,
       -1.12059247e-02, 4.52470826e-03, -1.03557650e-02, -1.65255796e-02,
       -1.06525943e-02, -2.28771544e-03, 1.34820091e-02, -1.48499582e-03,
       5.64881833e-03, 1.18344240e-02, 1.39509523e-02, -9.25307535e-03,
       -1.65809300e-02, -1.52922859e-02, -2.18016971e-02, 1.36049520e-02,
       -9.87156201e-03, 1.52729163e-02, 2.76852250e-02, -3.81103088e-03,
       5.27683552e-03, 3.88121349e-03, -1.01238396e-02, -6.05402933e-03,
       -2.24101683e-03, -8.02512281e-03, -7.10199645e-04,
       -5.24649769e-03, 7.59764062e-03, -1.51977933e-04, -4.73260134e-03,
       -1.09079508e-02, -1.14685148e-02, 1.16344914e-02, -3.56675708e-04,
       1.88004114e-02, 1.97710600e-02, 1.31566562e-02, -3.05877789e-03,
       -1.56831052e-02, -7.11046159e-03, -2.77765710e-02, 6.59019314e-03,
       -5.22477133e-03, -9.66390886e-04, 1.63233858e-02, 1.14016852e-03,
       -3.98012064e-03, -2.55559897e-03, -3.60767380e-03,
       -1.78612657e-02, 1.14258062e-02, 6.67208433e-03, 1.18469703e-03,
       2.98765558e-03, 3.45302257e-03, -2.94305151e-03, -8.07975326e-03,
       -3.75030050e-03, -1.97525378e-02, 1.69136710e-02, 1.27089005e-02,
       1.10456552e-02, 6.48297183e-03, -9.84636974e-03, -5.36803575e-03,
       -5.66524360e-03, -1.48412667e-03, -9.96892992e-03, 2.63319649e-02,
       2.61130482e-02, 1.05517013e-02, -1.00389561e-02, 4.20602853e-04,
       -2.51678703e-03, -1.42983617e-02, -1.64267812e-02,
       -1.53242229e-02, 9.94406454e-03, 2.22948585e-02, 1.39948707e-02,
       1.13773942e-02, -9.58777149e-04, 1.87046919e-03, -8.58793966e-03,
       -7.23317498e-05, -1.16589358e-02, -2.37903325e-03, 9.31281038e-03,
       1.83596760e-02, 4.07299167e-03, 1.83863391e-03, -2.15533306e-03,
       -9.96989571e-03, -5.19776950e-03, -6.49308274e-03, 1.68057960e-02,
       2.56251264e-02, 1.76667459e-02, 6.72132522e-03, 6.43187761e-03,
       6.41770754e-03, -8.27172364e-04, 4.04139841e-03, -1.29534574e-02,
       -1.83917279e-03, 7.73730036e-03, 9.02377162e-03, 4.10401402e-03,
       -2.63335230e-03, 3.38440505e-03, -7.25699635e-03, 7.20538711e-03,
       7.23639457e-03, 2.89020175e-03, -2.59268633e-03, 1.10440291e-02,
       6.54832926e-03, 1.75980839e-03, 6.75917044e-03, -6.82621542e-03,
       3.74208181e-03, 8.51967093e-03, -5.77159831e-03, -1.93389114e-02,
       -4.71653184e-03, 1.48100650e-03, 8.87423661e-03, 9.85448435e-03,
       2.97817332e-03, 8.58224835e-03, 3.00035020e-03, -1.80984184e-03,
       -8.74337368e-03, 5.02998009e-03, 1.25917550e-02, 1.59939099e-02,
       9.34226206e-04, -1.01033412e-02, -8.29029887e-04, 3.35379317e-03,
       -3.41165019e-03, -2.24054419e-02, -4.05370723e-03, 1.81670953e-02,
       6.07172772e-03, 7.46996980e-03, -5.40472055e-03, 3.67048546e-03,
       5.90993743e-03, 1.26431379e-02, 7.18838652e-04, 2.15708534e-03,
       -8.94209556e-03, 1.05038180e-03, 1.67028941e-02, -6.25023665e-03,
       3.91488476e-03, -2.24384330e-02, 9.79613699e-03, 2.60446570e-03,
       3.30259814e-03, -1.41658466e-02, 7.47818220e-03, 2.70517706e-03,
       -1.25736510e-02, 5.29836956e-03, 1.31351873e-02, 1.79297756e-02,
       1.77708128e-03, 1.32975087e-03, -6.37088297e-03, -1.89942672e-04,
       6.73842710e-03, -4.43272106e-03, 4.18542372e-03, -1.34895742e-02,
       1.51275815e-02, 1.61024276e-03, 1.51160611e-02, -5.92777599e-03,
       7.99328741e-03, 1.29983490e-02, -3.74776591e-03, -2.52907048e-03,
       -1.38416905e-02, 6.78491034e-03, 3.52960546e-03, 7.42488122e-03,
       2.87923776e-03, -1.08183769e-03, 1.66645385e-02, 4.77360422e-03,
       2.53455853e-03, -8.78338795e-03, -3.39599675e-03, -9.99066327e-03,
       1.83830503e-03, 2.67238612e-03, -2.42856261e-03, 5.23995701e-03,
       -1.24564205e-04, 1.84990594e-03, -5.54163882e-04, 6.45239698e-03,
       -3.33282078e-04, 1.58741307e-02, 1.71684637e-03, -2.30388585e-04,
       7.39168702e-03, -9.34473984e-03, -2.60435534e-03, 5.72498003e-03,
       -8.83585587e-03, -1.58530511e-02, 1.47712871e-03, -3.38309538e-03,
       -3.58868297e-03, 1.46582443e-02, 1.16105033e-02, 1.50744962e-02,
       2.28873803e-03, 1.07068778e-03, -1.58034917e-02, -2.57433578e-03,
       3.28801310e-04, -9.29036032e-05, 1.50178717e-02, 1.04590897e-02,
       7.24420836e-03, -1.74408667e-02, -7.70040089e-03, -7.65013834e-03,
       7.35490676e-03, -2.25428434e-04, 1.32516455e-02, 5.45273069e-03,
       -3.83697846e-03, 5.39437355e-03, 1.33706955e-02, -3.36586847e-03,
       -2.43119374e-02, -5.33754239e-03, 6.01257337e-03, 1.79700833e-02,
       1.61798056e-02, -8.94167926e-04, -1.15639751e-03, -8.21682066e-03,
       -1.31397545e-02, -2.20040437e-02, 5.47796022e-03, 1.53065892e-02,
       2.99681234e-03, 1.71649493e-02, 6.60775322e-03, -2.17297720e-03,
       -1.31793842e-02, -7.47960876e-04, -3.15058092e-03, 5.66523755e-03,
       -6.14015711e-03, 7.29624042e-03, 1.25220418e-02, 1.04466928e-02,
       -4.94938693e-04, -1.00420825e-02, 1.65806115e-02, 5.33242570e-03,
       1.58569831e-02, 1.06654735e-02, 1.78648420e-02, 1.62921958e-02,
       -4.24034614e-03, -5.99625381e-03, -1.46527905e-02,
       -1.02248825e-02, -1.55118201e-02, -1.68078375e-04, 8.13035574e-03,
       1.39837377e-02, 8.63678008e-03, -6.21108990e-03, 5.75637864e-03,
       1.46853086e-03, 2.35750265e-02, 5.39954146e-03, 7.25609390e-03,
       1.46563202e-02, -3.44973663e-03, -1.17421476e-03, 1.58099618e-04,
       -2.04832712e-03, -1.56459697e-02, 1.02912961e-02, 1.19452672e-02,
       1.74432825e-02, -2.06929143e-03, -1.44965202e-02, 2.31682463e-03,
       -3.36984312e-03, -3.04691470e-03, -9.20152385e-03, 2.18022224e-02,
       2.59564146e-02, 1.82629619e-02, -6.17871480e-03, 2.23382120e-03,
       -1.22297760e-02, -8.39671958e-03, 3.42617015e-04, -1.31364260e-02,
       1.30798547e-02, -1.54836010e-03, 1.04902564e-02, 1.43003389e-02,
       -1.03981625e-02, -1.47277955e-03, -1.31930476e-02, 8.09003133e-03,
       -1.37920640e-02, 1.64237432e-02, 9.45237745e-03, 2.74031051e-02,
       1.33342808e-02, 1.90838112e-03, 1.43384072e-03, -8.73664580e-03,
       -4.66952426e-03, -8.68501887e-03, 9.43245646e-03, 2.03506481e-02,
       1.37351714e-02, 1.00697912e-02, 5.27403923e-03, 9.47640929e-03,
       -3.19785229e-03, 2.78068730e-03, -1.60806142e-02, -4.95216623e-03,
       -2.38263537e-03, 3.51937418e-03, 7.01852469e-03, -2.05460028e-03,
       -2.30831746e-03, -1.65027492e-02, -1.89865625e-03,
       -1.10121137e-02, 1.19222356e-02, 8.17081425e-03, 2.79436558e-02,
       1.56233357e-02, 5.64282411e-04, -1.03461295e-02, -1.28841512e-02,
       9.97410156e-03, -6.97475579e-03, -2.39699162e-04, -1.08029768e-02,
       2.19837273e-03, 4.19911742e-03, 4.93679987e-03, 6.26935996e-03,
       4.31324181e-04, 1.23275388e-02, -8.40553912e-05, -5.94452582e-03,
       -8.59611575e-03, -6.77921623e-03, 5.85923437e-03, 6.74976502e-03,
       -5.62038552e-03, -3.39226658e-03, 1.05319349e-02, 7.78636010e-03,
       -5.11651253e-03, -1.85414273e-02, -1.08094495e-02, 4.62162076e-03,
       3.33675789e-03, -2.58390745e-03, 4.42314427e-03, 2.81185489e-02,
       2.49827816e-03, -7.16836751e-03, -2.26047076e-02, -3.90554336e-03,
       7.69549079e-05, 4.48166765e-03, -3.23016103e-03, 1.22780772e-02,
       3.21703255e-02, -2.71646795e-03, -4.71004331e-03, -1.35068456e-02,
       6.37769280e-03, 5.48354816e-03, 1.05985291e-02, 4.37990576e-03,
       -1.42441224e-02, 4.86915838e-03, 8.02584644e-03, 1.68043710e-02,
       -2.17810669e-03, 2.75254622e-03, -9.82238096e-04, -5.72938751e-03,
       -5.34162903e-03, -9.91248619e-03, 1.26827117e-02, 1.49513176e-03,
       2.30709128e-02, 5.32440841e-03, 1.26719037e-02, 2.89756572e-03,
       -4.12188051e-03, 6.72422536e-03, -9.80244298e-03, -2.63260980e-03,
       -7.24073639e-03, 6.33097487e-03, -1.64221553e-03, 2.00124201e-03,
       -1.22441873e-02, -3.48366750e-03, -5.86504955e-03,
       -3.78772523e-03, 1.25578381e-02, -2.56222091e-03, 1.52073158e-02,
       1.02295242e-02, 1.02827847e-02, -7.36412499e-03, -9.60401446e-03,
       1.01911013e-04, 1.66759163e-03, 1.48397004e-02, -7.09192769e-04,
       1.37850009e-02, 8.23474303e-03, 7.36279972e-03, -5.95832989e-03,
       1.05320464e-03, 1.00127347e-02, 9.44852829e-03, 8.42547137e-03,
       1.96502008e-03, -4.43881610e-03, -2.60173669e-03, -2.95970240e-03,
       -4.34429385e-03, -4.04123589e-03, -6.86723972e-03, 2.05354625e-03,
       2.67678984e-02, 2.18347274e-03, 6.58860290e-03, 6.29116874e-03,
       -1.00536610e-03, -1.42092789e-02, -4.06222930e-03, 7.33171869e-03,
       1.81827731e-02, 2.12782230e-02, 2.93805683e-03, 7.41095282e-03,
       2.80767377e-03, -3.63643095e-03, -9.95052513e-03, 1.11803962e-02,
       6.72905240e-03, 1.57349894e-03, 7.90224411e-03, 2.05135997e-03,
       -5.49493358e-03, -1.14236465e-02, 1.20062637e-03, 8.32064729e-03,
       1.92993432e-02, 5.71719836e-03, -2.71433475e-03, 3.67605523e-03,
       3.71706113e-03, -7.33135780e-03, -1.76943392e-02, 1.26177780e-02,
       2.67269220e-02, -5.76641504e-03, 6.92737056e-03, 2.05739327e-02,
       9.00203455e-03, -2.43607839e-03, 1.91843265e-03, -5.90659399e-03,
       -1.69950479e-03, 6.30077615e-04, -1.08603118e-02, -6.66520093e-03,
       -7.34947273e-04, -6.63549290e-04, 1.43028218e-02, 3.46447137e-04,
       -1.18182451e-02, 9.75706987e-03, 9.93432105e-03, 1.71348844e-02,
       -1.81768183e-03, -8.39899760e-03, -3.61826504e-04,
       -2.29046424e-03, -8.81482940e-03, -9.04537924e-03, 9.09114257e-03,
       2.66698301e-02, 2.44512130e-02, -7.17637944e-04, -6.19362481e-03,
       4.78933705e-03, 7.01645156e-03, 1.50469458e-02, -4.55385540e-03,
       5.61711052e-03, 2.56079603e-02, -1.38116581e-03, -6.67151343e-03,
       -3.98111390e-03, -4.54938784e-03, 3.07659479e-03, 5.82663389e-03,
       -3.82918143e-03, 1.59379952e-02, 1.52041344e-02, 9.50162765e-03,
       1.27409515e-03, 2.10277736e-03, 1.42117694e-03, -8.23015068e-03,
       5.58289234e-04, -1.87160466e-02, 6.05903706e-03, 1.61706377e-02,
       1.97053980e-02, -3.70103307e-03, -1.21456673e-02, 2.21865461e-03,
       9.36887972e-03, 1.15533751e-02, -1.27648907e-02, 2.88140657e-03,
       2.32355408e-02, 9.61820316e-03, 3.54341138e-03, -1.59434956e-02,
       6.62647653e-04, -7.58536742e-04, 1.67900827e-02, 7.13485293e-04,
       2.26635598e-02, 2.21370943e-02, 1.22937039e-02, 2.05747341e-03,
       -9.71990637e-03, 6.47278284e-05, -5.11508854e-03, -2.24549882e-03,
       -2.48747468e-02, -3.35077685e-03, 1.82126816e-02, 1.36943348e-02,
       5.52050257e-03, -2.17041057e-02, -7.34903570e-03, -2.19677426e-02,
       1.83985045e-03, -1.15205245e-02, 6.01800275e-04, 6.90068677e-03,
       5.65762212e-03, -4.99659742e-04, -1.09639065e-02, -2.94322614e-03,
       -7.83464871e-03, 6.14648778e-03, 2.66945316e-03, 1.71790477e-02,
       1.61632970e-02, -1.62566791e-03, -7.26217870e-03, -2.70852004e-03,
       1.78598017e-02, 7.76517252e-03, 8.85321293e-03, -7.89933838e-03,
       -1.71627733e-03, -3.04449187e-03, 4.15725214e-03, 9.70753469e-03,
       1.02566928e-03, -9.51297639e-04, -2.63991896e-02, -7.24295108e-03,
       -9.06697102e-03, -2.38766056e-03, -4.17771330e-03, 2.59383931e-03,
       9.68379807e-03, 1.39695341e-02, 1.59804225e-02, -1.27963219e-02,
       -3.10749630e-03, -1.63014159e-02, -7.69106578e-03,
       -5.13570383e-04, -3.14376457e-03, -7.98385497e-03, 1.11314841e-03,
       2.35765167e-02, 2.78937723e-03, 5.55034308e-03, -1.02782492e-02,
       -1.75168694e-04, -7.05673825e-03, -7.22381007e-03,
       -1.59671926e-03, 5.65702701e-03, 2.45800409e-02, -1.63155701e-02,
       -3.00112460e-03, -1.30241457e-02, 7.47418683e-03, -4.87746717e-03,
       2.66247336e-03, 1.07715763e-02, 4.06027678e-03, 1.76588204e-02,
       -9.77370422e-03, 3.34061682e-03, -9.33779683e-03, -1.23599812e-03,
       -6.98342733e-03, 3.06263077e-03, 1.59376971e-02, 2.54903571e-03,
       1.57451928e-02, -1.67940147e-02, 6.06264081e-03, -8.96107304e-05,
       2.41117971e-03, -1.25143295e-02, 4.51751956e-04, -2.67288735e-04,
       -9.16725025e-03, -9.66525229e-04, -4.01522638e-03, 3.36049241e-03,
       -3.39832366e-03, 4.70715517e-04, -3.89376981e-03, 8.43759254e-03,
       -1.21717669e-04, -6.99171738e-04, 1.04813874e-02, -3.69587331e-03,
       1.30441412e-02, -7.39712734e-03, 9.10309330e-03, 7.15731364e-03,
       -4.37333621e-03, -4.99403011e-03, -1.11350892e-02, 5.64304693e-03,
       5.51477168e-03, 8.64249375e-03, -5.45629160e-03, -1.06121609e-02,
       7.95519818e-03, 2.65588809e-04, 8.09418503e-04, -4.46454575e-03,
       1.38555542e-02, 7.52151944e-03, 1.75915863e-02, -9.09429882e-03,
       3.33747617e-03, 6.60762144e-03, 9.29906685e-03, -2.79067527e-03,
       -3.68780131e-03, 1.84284542e-02, 4.17454122e-03, 1.12225562e-02,
       -1.22659001e-02, 3.77105828e-03, 3.05646029e-03, 7.45812897e-04,
       1.09601091e-03, 7.95862917e-03, 1.56838764e-02, 7.80294649e-03,
       3.92683456e-03, -9.33486968e-03, 9.77408257e-04, -5.27082244e-03,
       2.43897224e-03, 1.11241289e-03, -2.97740987e-03, 1.33546451e-02,
       8.22349172e-03, 1.94519348e-02, -1.01258168e-02, 1.28094153e-02,
       3.38659855e-03, -1.10050384e-03, -4.13169339e-03, -5.79698570e-03,
       8.02004058e-03, 2.15670839e-03, 2.15525925e-02, -9.05856490e-03,
       4.82585654e-03, -2.36041006e-03, -1.76036276e-03, 9.01432894e-03,
       1.19984662e-02, 1.08094448e-02, 4.73047886e-03, 4.20176098e-03,
       -7.06277695e-03, -6.81879325e-03, -8.62243993e-04,
       -6.42859843e-03, -3.04826628e-03, 6.66181277e-03, 7.63016380e-03,
       1.28339175e-02, -1.46287284e-03, -1.36240739e-02, 6.51114713e-03,
       8.38715769e-03, -9.20026854e-04, 7.14051130e-05, -6.82016322e-03,
       7.24868244e-03, 7.16573372e-03, 2.06130315e-02, -4.26243432e-03,
       -1.37336797e-03, -3.42871668e-03, 2.12897244e-03, 3.10445973e-03,
       2.67893518e-03, 1.18333278e-02, 4.54313215e-03, 6.94903638e-03,
       -6.42180443e-03, -2.08827690e-03, 5.75311715e-03, -8.82617291e-03,
       3.01073212e-03, 6.69807382e-03, 2.13829963e-03, 1.28185691e-03,
       -1.39273540e-03, -1.28186354e-02, 8.01751390e-03, 7.46854907e-03,
       -1.89889863e-03, 7.13837519e-03, 1.83866154e-02, 1.16158538e-02,
       -3.32483184e-03, 4.03787056e-03, -1.18162520e-02, 3.63965891e-03,
       2.06286926e-03, 2.51882389e-04, 7.21063185e-03, 1.26100238e-02,
       1.45412078e-02, 4.56462521e-03, -4.02431423e-03, -1.95632949e-02,
       -6.92103524e-03, -3.48821934e-03, -7.27791339e-03,
       -3.36023420e-03, 9.10624489e-03, 1.89585984e-02, 1.55617511e-02,
       1.67053435e-02, -2.08846456e-03, 7.04718230e-04, -1.20394910e-02,
       4.27727215e-03, 6.78316969e-03, 1.14703253e-02, 1.69487149e-02,
       -3.00973840e-03, 7.05452496e-03, -6.14704937e-03, -9.77589283e-04,
       1.05391024e-02, 7.81950913e-03, 5.93950879e-03, 2.12790701e-03,
       7.58444006e-03, -1.52204083e-02, 1.44485068e-02, -4.67204675e-03,
       1.76796399e-04, 1.91968791e-02, -1.35442673e-03, -1.07821599e-02,
       6.69523003e-03, 1.50477560e-02, 1.83290360e-03, 9.56384651e-03,
       7.31262006e-03, 9.85509483e-04, -4.12224932e-03, -1.10128252e-02,
       -3.07890307e-03, -2.95489421e-03, 1.04503185e-02, 2.24387390e-03,
       1.59821995e-02, -8.82839691e-03, 5.02943387e-03, 1.10562136e-02,
       1.36513580e-02, 1.33593166e-02, 7.98839331e-03, 3.72561486e-03,
       -1.70032438e-02, 3.18523101e-03, -1.07840206e-02, -3.63614783e-03,
       1.56710763e-02, 1.73958577e-02, 1.44502642e-02, 1.93471760e-02,
       9.18896683e-03, -4.38422430e-03, 1.83799581e-04, -1.62222013e-02,
       -6.00904878e-03, 1.63049996e-02, -2.22521892e-04, 5.32095926e-03,
       -3.42440885e-03, -8.78600928e-04, -1.74511538e-03, 1.01656895e-02,
       -1.86284184e-02, -4.55783121e-03, 1.13050472e-02, 4.24697436e-03,
       2.67712935e-03, 2.64933379e-03, 5.05495956e-03, 6.56425301e-03,
       1.11517161e-02, -1.72001589e-02, -2.53269356e-03, 7.09819421e-03,
       1.26924179e-02, 5.90772508e-03, 2.45199772e-03, 1.17484825e-02,
       -1.36099989e-02, -2.99938279e-03, -1.26804980e-02,
       -1.79204682e-03, 9.65480600e-03, 9.22915712e-03, 2.01563742e-02,
       5.88144129e-03, 1.68099497e-02, -1.29758902e-02, 6.38172962e-03,
       -3.53389350e-03, 1.54373585e-03, 1.57141022e-03, 2.29315972e-03,
       -9.30033997e-03, -7.80627457e-03, 1.96532509e-03, -2.21659569e-03,
       -5.42714726e-03, -2.14850251e-02, -1.10297622e-02, 2.49195471e-03,
       -1.82828284e-03, -3.44410801e-04, 8.05082917e-03, 2.36535799e-02,
       8.82477872e-03, 1.38211891e-03, -1.67309195e-02, -8.43900163e-03,
       1.74622040e-03, 3.86169786e-03, 3.81420064e-03, -3.86247132e-03,
       3.59994685e-03, 3.81972990e-03, 1.13629587e-02, 9.10486910e-04,
       -8.30314029e-03, 1.47469556e-02, 1.50465849e-03, -2.99878581e-03,
       6.63689687e-04, 8.53795558e-03, 9.69700422e-03, 1.07222516e-02,
       -4.92230384e-03, -3.89258377e-03, 8.77408218e-03, 3.99789680e-03,
       5.89506095e-03, 6.32787077e-03, 7.47814821e-03, -4.17111255e-03,
       2.79174931e-03, -7.48580089e-03, 3.06392601e-03, 1.30951004e-02,
       2.73687113e-03, -5.78901451e-03, -4.08104202e-03, 1.53734591e-02,
       4.01817216e-03, 7.80739309e-03, -1.89754143e-02, 5.97724551e-03,
       6.98176539e-03, 7.24543072e-03, 1.61511113e-03, -4.62087058e-03,
       7.69056054e-03, 9.72253736e-03, 1.12780835e-02, -1.04473950e-02,
       9.37414879e-05, 4.63254517e-03, -2.42651731e-04, -8.84882826e-03,
       -1.48840444e-02, 4.18286584e-03, -2.05813046e-03, 2.58298069e-02,
       -6.03748159e-03, -1.99809112e-03, 4.12872992e-03, 1.34848123e-02,
       4.89242747e-03, 2.21600244e-03, 1.37995677e-02, 5.71568776e-03,
       5.14209736e-03, -2.59363241e-02, -3.60452896e-03, 4.77921916e-03,
       1.04378061e-02, 5.48270624e-03, -5.62833110e-03, 6.37212489e-03,
       2.07074266e-03, 2.42609363e-02, -8.21010862e-03, 8.48416705e-03,
       7.39724608e-03, -8.06144346e-03, -1.17568104e-02, -1.73773933e-02,
       2.50378088e-03, 9.23422258e-03, 3.51326689e-02, 5.32202469e-03,
       -4.45850985e-03, -4.39707539e-04, -8.62021279e-03,
       -1.00370701e-02, -1.08074164e-02, 1.12558352e-02, 1.68013610e-02,
       2.09629443e-02, 1.53842266e-03, -1.06843552e-02, -4.00823774e-03,
       -7.23483972e-04, -2.78755766e-03, -8.67331028e-03, 1.04706818e-02,
       8.48324504e-03, 3.15594040e-02, -1.84573547e-03, 7.51989149e-03,
       6.72913669e-03, -1.62397735e-02, -1.59383509e-02, -7.86741078e-03,
       2.02340893e-02, 1.78436246e-02, 2.29149926e-02, 7.07287714e-03,
       6.82510494e-04, -4.15294868e-04, -1.24256937e-02, -3.28291976e-03,
       5.46499272e-04, 9.31784604e-03, 1.57510974e-02, 8.78588948e-03,
       -6.52315328e-03, -6.20417111e-03, -1.60016585e-02,
       -1.55667728e-02, -3.04720923e-03, 1.36541086e-03, 6.87456271e-03,
       1.64712407e-02, 1.54237552e-02, 9.76585131e-03, -2.32629175e-03,
       -2.03272048e-02, -1.97668727e-02, -1.49003742e-02, 4.34595771e-04,
       1.68488398e-02, 2.12609917e-02, 2.87788007e-02, 7.22681638e-03,
       6.60236645e-03, -9.30704270e-03, -1.06211128e-02, 2.00736383e-03,
       7.62482593e-03, 9.90764890e-03, 2.01291926e-02, 2.60318872e-02,
       1.13883857e-02, 7.55761564e-03, -5.84757561e-03, -8.81186314e-03,
       -6.05396600e-03, -6.73501112e-04, 1.11946380e-02, 1.27865644e-02,
       1.80701911e-02, 1.31912734e-02, 5.53255249e-03, -1.08008673e-02,
       -2.33142544e-02, -7.57622533e-03, 2.05927901e-03, 2.04923190e-02,
       1.90442484e-02, 1.35737425e-02, -2.73056282e-03, 7.96339568e-03,
       -5.75894397e-03, 3.96692427e-03, 9.37854685e-03, -2.52040452e-04,
       1.61667205e-02, 1.97418574e-02, 1.98874138e-02, 7.86688644e-03,
       1.36973187e-02, 2.07593129e-03, -1.36625196e-03, 3.97483632e-03,
       6.56051049e-03, 2.39103492e-02, 1.48092490e-02, 1.36631038e-02,
       3.18326359e-03, 1.80222727e-02, 9.78718791e-03, -2.57500205e-02,
       -8.10712110e-03, -6.02033967e-03, 5.92412660e-03, 1.14402212e-02,
       1.20751746e-02, -7.74961291e-03, 1.02182687e-03, -3.62470676e-03,
       -1.03415567e-02, -1.32477935e-03, 3.27145215e-04, 5.55961952e-03,
       1.26203503e-02, 2.04709191e-02, -4.49469732e-03, -8.27334821e-04,
       -2.26251874e-03, -2.83927098e-03, 5.94801968e-03, 8.41166079e-03,
       1.87087320e-02, 1.69539936e-02, 6.31862646e-03, -5.01432829e-03,
       8.50870088e-03, 1.43029569e-02, 1.56062422e-02, 9.41891596e-03,
       8.86615738e-03, 1.92480925e-02, 2.00845599e-02, 1.92216691e-02,
       1.09004006e-02, 7.94921350e-03, 4.59095882e-03, -7.09916884e-03,
       -1.31881675e-02, -1.42433373e-02, 1.02917769e-03, 1.49132567e-03,
       1.15014296e-02, -4.47437866e-03, -4.35381103e-03, -8.23002681e-03,
       -1.41885737e-02, -1.12052029e-02, -1.13214955e-04, 2.44685560e-02,
       1.69370621e-02, 9.10264626e-03, -1.08617218e-02, -9.12356190e-03,
       -1.04299244e-02, 5.06490609e-03, -2.28464208e-03, -4.41604154e-03,
       1.28018474e-02, 8.32013972e-03, 1.55850062e-02, 7.28777004e-03,
       1.24218194e-02, -1.82279956e-03, -2.33323080e-03, -1.18754646e-02,
       -4.77340678e-03, 1.26419459e-02, 8.25709850e-03, 1.48479724e-02,
       1.12435815e-03, 2.07905322e-02, 1.22335106e-02, 6.67670555e-03,
       2.08446127e-03, 4.45788552e-04, 8.20875913e-03, -1.69571601e-02,
       -3.70541471e-03, -4.08748863e-03, 1.19084809e-02, 1.63543392e-02,
       -1.35973177e-03, -4.58865147e-03, 3.48102697e-03, 1.98682789e-02,
       -7.72931799e-03, 4.48876666e-03, -8.30578804e-03, 1.00645367e-02,
       3.02466005e-03, -2.02841964e-03, -7.42888404e-03, -7.55449431e-03,
       3.98848020e-03, -7.51706259e-03, 1.32022053e-02, 8.10202304e-03,
       2.06280351e-02, 1.06444629e-02, 1.41833632e-04, -5.99273806e-03,
       -7.30187586e-03, 7.10570207e-03, -1.08643044e-02, 1.72184035e-02,
       1.90271065e-02, 2.24586315e-02, 1.71512552e-03, 4.69917990e-03,
       7.25990999e-03, 5.23215812e-03, 1.64244827e-02, -4.62921569e-03,
       8.30441061e-03, -7.52051547e-03, 8.34515225e-03, 4.94295545e-03,
       7.07270531e-03, 1.16809187e-02, 4.50092787e-03, 9.64039844e-03,
       -8.52983352e-03, 1.86028692e-03, -1.13962078e-02, 4.99004824e-03,
       1.42036770e-02, 4.63455357e-03, -6.12882711e-03, -3.38901603e-03,
       7.47821806e-03, -1.10310940e-02, 1.75333917e-02, 1.70804467e-02,
       1.83717515e-02, 1.32602900e-02, -1.49142626e-03, -8.93896073e-03,
       -9.58679151e-03, 4.27276688e-03, -1.06746526e-02, 9.74519830e-03,
       3.85105913e-03, 1.26132919e-02, 1.76330991e-02, -3.78886843e-03,
       -5.02959220e-03, -1.30831534e-02, 2.06383667e-03, -7.96400290e-03,
       1.45616299e-02, -7.23707490e-04, 9.05653369e-03, 7.65415700e-03,
       -8.90566222e-03, -1.81096829e-02, -1.01084067e-02, 9.67541896e-03,
       8.25601723e-03, 2.16191709e-02, 1.13817202e-02, 1.13093182e-02,
       2.11777096e-03, -1.41889425e-02, -1.42016327e-02, -1.43694393e-02,
       1.20604772e-03, -7.60001829e-04, 7.67889293e-03, 8.66599323e-04,
       8.15081876e-03, 3.39471642e-03, 4.20980109e-03, -5.81280701e-03,
       -5.99247217e-03, 1.52229297e-03, 1.49268797e-02, 2.58163977e-02,
       1.02912216e-02, 1.67146325e-02, 1.75860543e-02, -1.40844528e-02,
       -1.92028433e-02, -2.35888083e-03, 4.46714275e-03, 1.20188035e-02,
       2.07640380e-02, 2.60068499e-03, -2.57093715e-03, -7.63419736e-03,
       -1.37294708e-02, -9.55001730e-03, -1.34288974e-04, 6.45682681e-03,
       1.13522271e-02, 1.19592724e-02, -1.33833068e-03, 6.37151115e-03,
       3.60444980e-03, -1.48014969e-03, -6.32681372e-03, -6.86111907e-03,
       -4.66286903e-03, 1.15915341e-02, 2.97574569e-02, 5.85399056e-03,
       5.66771533e-03, 1.35149872e-02, -5.37926191e-03, -7.19315559e-03,
       -9.39948671e-03, -6.30120095e-03, 1.50709841e-02, 2.10799295e-02,
       -7.47247087e-03, -6.54177787e-03, 1.82242168e-03, -6.68762205e-03,
       -6.37857476e-03, -1.08464416e-02, 3.16641200e-03, 1.14263622e-02,
       6.98222406e-03, -7.25302659e-03, 1.05560757e-02, 5.08237723e-03,
       -5.46935108e-03, -5.20372950e-03, -8.76625068e-03, 8.38150550e-03,
       9.53839533e-03, -1.01786549e-03, -9.02737584e-03, 6.93716435e-03,
       3.37716262e-03, 4.80837561e-03, -7.23396242e-03, -1.44067779e-02,
       -5.84920228e-04, 1.34499185e-02, 1.36118643e-02, -1.44372880e-02,
       2.59610894e-03, 1.78577360e-02, 6.92066550e-03, -4.58709477e-03,
       -1.05548361e-02, 9.34439618e-03, 3.14143626e-03, -2.97231745e-04,
       -1.87534057e-02, 1.10596409e-02, 1.98565163e-02, 3.46400985e-03,
       7.76413875e-03, -7.27453444e-04, 1.09639969e-02, -2.39423927e-04,
       -5.52747771e-03, -9.06851795e-03, 1.91967236e-03, 8.23079050e-03,
       7.52572715e-03, 5.39970351e-03, 2.49133748e-03, 1.93447806e-02,
       4.96515678e-03, -4.85155405e-03, 9.59951140e-04, 2.28090445e-03,
       -2.12991866e-03, 7.32954592e-03, 3.73605930e-04, -1.02251796e-02,
       1.11952592e-02, -1.12637058e-02, -1.83045617e-04, -3.51655693e-03,
       9.79717355e-03, 2.03281753e-02, -1.73821335e-03, 6.40321989e-04,
       -1.87298027e-03, 2.00735740e-02, 1.80930702e-03, 1.36236288e-02,
       1.00972783e-03, 1.16537834e-04, 8.00809823e-03, 3.91444983e-03,
       -6.30672043e-03, -3.92878335e-03, 9.43235587e-03, 1.27382558e-02,
       7.27477437e-03, 6.97329966e-03, 1.14971790e-02, 8.28580931e-04,
       1.18959848e-04, -9.72597487e-03, -1.34345377e-02, 2.01244350e-03,
       -1.98386423e-03, 9.57615953e-03, 1.15452008e-03, 1.80289093e-02,
       2.08331123e-02, 1.09317070e-02, -9.42445302e-04, 1.07587746e-03,
       1.25230188e-02, 5.58747444e-03, 1.52989663e-02, -3.45896784e-04,
       -1.64799148e-03, 9.66777280e-03, 1.84121355e-02, 7.53882900e-03,
       -8.50628223e-03, 9.28571797e-04, -1.41403973e-02, 4.93560685e-03,
       -2.69778399e-03, 5.62020112e-03, 1.63405463e-02, -2.45912606e-03,
       -8.05925578e-03, -1.74212512e-02, 4.17738967e-03, 5.64526534e-03,
       1.72731150e-02, 1.09311966e-02, 1.17333010e-02, 5.40203555e-03,
       -6.16540993e-03, -1.61702465e-02, -2.38467939e-02,
       -5.84117649e-03, -2.69315293e-04, 2.51690056e-02, 1.96256097e-02,
       1.21113369e-02, 4.80444753e-04, 1.64758246e-02, -5.77462744e-03,
       -2.20088344e-02, 1.31526971e-02, 9.90765286e-04, 7.70274317e-03,
       1.38941659e-02, 6.67894864e-03, 1.68320425e-02, 1.69136154e-03,
       -1.53593011e-02, -2.69117914e-02, -2.19028164e-03,
       -3.68415471e-03, 1.33957742e-02, 9.35465936e-03, 4.53413790e-03,
       8.16067588e-03, -2.51571834e-03, -1.66159924e-02, -1.90650485e-02,
       -7.37851160e-03, -1.06275650e-02, 2.10061446e-02, 1.92123167e-02,
       1.68418270e-02, 9.47557576e-03, -1.60530172e-02, -2.26090644e-02,
       -1.88519880e-02, -2.31878003e-04, -4.00111545e-03, 1.94496009e-02,
       1.92906726e-02, 1.59589816e-02, 5.86391846e-03, -4.39734990e-03,
       -1.19680036e-02, -2.33458206e-02, -1.12315081e-02,
       -9.27152950e-03, 1.69947967e-02, 1.01638129e-02, 1.53528163e-02,
       8.98179971e-03, -4.72080894e-03, -9.60923452e-03, -1.95249785e-02,
       -1.34315081e-02, -1.34099266e-02, 2.04052106e-02, 2.12734528e-02,
       3.02238222e-02, 1.43760499e-02, -7.40149012e-03, -1.58095565e-02,
       -1.29215037e-02, 7.25348527e-03, -1.66266705e-04, 7.96194281e-03,
       1.68261118e-04, 4.17543389e-03, 3.05836764e-03, 9.82449204e-03,
       3.39470047e-04, 5.66084031e-03, 8.39128625e-03, -6.48195902e-03,
       4.03379463e-03, -5.68341697e-03, 9.30651836e-03, 2.21366845e-02,
       -8.77179671e-03, -8.45471956e-03, -6.64190901e-03, 5.64371049e-03,
       -1.56470891e-02, 1.22900736e-02, 1.98222115e-03, 1.20982900e-02,
       1.07655413e-02, -6.40210090e-03, -3.22501641e-03, 7.66056031e-03,
       1.45592876e-02, -1.19205713e-02, -1.01460610e-02, -1.04507916e-02,
       3.77825205e-03, 6.24264963e-03, 4.28701891e-03, 5.52451937e-03,
       3.99615802e-03, 5.32260165e-03, -8.06940661e-04, 1.43513400e-02,
       -5.73781878e-03, 6.48064958e-03, 1.87007785e-02, -7.61539632e-05,
       -1.48718210e-03, -2.97607575e-03, 2.46153143e-03, 8.83289333e-03,
       2.12621335e-02, -3.44450679e-03, -4.51526325e-03, 7.38784624e-03,
       -1.43100657e-02, 1.74797140e-04, 7.81040825e-03, 6.02265354e-03,
       -1.49744917e-02, -3.49516654e-03, -1.81556679e-02, 8.12484475e-04,
       4.00061533e-03, -1.82081908e-02, -3.05296620e-03, 9.38981678e-03,
       1.09008439e-02, -1.28703406e-02, 8.91437568e-03, -1.48135982e-02,
       -1.89230556e-03, -2.37609283e-03, 1.07352622e-02, -1.77007657e-03,
       -1.10248225e-02, -3.68653308e-03, -4.98715369e-03, 7.45286699e-03,
       -1.17557766e-02, -6.45368709e-04, 1.80037674e-02, 2.28440445e-02,
       5.33506600e-03, -6.26500836e-03, 6.17038133e-03, -1.82889514e-02,
       8.01671389e-03, -6.59353519e-03, 5.90461865e-03, 3.26439478e-02,
       -8.97404645e-03, -4.11379337e-03, -5.32991195e-04, 3.20197176e-03,
       -1.17709627e-02, -9.44930303e-04, -1.00165270e-02, 1.08867674e-03,
       6.59354636e-03, 1.81622952e-02, 3.24605661e-03, -1.67736388e-03,
       1.77881941e-02, -5.90135762e-03, 9.34324320e-03, -9.44344793e-03,
       6.21880032e-03, 2.15572827e-02, 1.43757304e-02, -1.42990914e-03,
       -9.37949028e-03, 5.21470513e-03, -2.16845945e-02, 7.74659635e-03,
       -1.48668326e-03, 2.86800181e-03, 2.46188790e-02, 1.20846892e-03,
       -5.96036436e-04, -1.89793867e-03, 1.63109917e-02, 6.92347577e-03,
       1.11808432e-02, -4.35951166e-03, 7.24812096e-04, 1.02946311e-02,
       1.27849430e-02, 1.61330716e-03, -6.34531863e-03, 1.01275323e-02,
       -3.65873938e-03, 1.06733404e-02, 1.20045512e-03, 6.97434973e-03,
       1.30421063e-02, -8.86008318e-04, 2.03073560e-03, -8.66385456e-03,
       9.62078921e-04, 2.74708658e-03, 1.95756019e-03, -9.25631437e-04,
       9.72182769e-03, -1.09314816e-02, 8.58293567e-03, 3.18984082e-03,
       8.03084206e-03, 2.02120822e-02, 1.11449743e-02, 5.40298410e-03,
       -8.50008987e-03, -1.06508248e-02, 6.61991816e-03, 3.19723189e-02,
       1.33054387e-02, 1.40223037e-02, 1.13879396e-02, -1.97080225e-02,
       -6.11799117e-03, -1.24482773e-02, -8.74633156e-03, 1.86175052e-02,
       9.89578851e-03, 6.89382339e-03, -1.41007244e-03, 1.14804395e-02,
       1.10028666e-02, -5.35226800e-03, -1.83086544e-02, -1.69247366e-03,
       -4.89470456e-03, 2.20760461e-02, 3.70902568e-03, -5.99182118e-03,
       -2.30742409e-03, -1.31104225e-02, -6.43896218e-03,
       -1.05374092e-02, 8.94205552e-03, 2.02646814e-02, 6.65742392e-03,
       -1.87858776e-03, -1.39717078e-02, 1.10651655e-02, -3.17485305e-03,
       7.79359322e-03, 4.03116504e-03, -1.86220871e-03, 2.59908335e-03,
       1.70739659e-03, -8.92397203e-03, -1.09834978e-02, 3.41361249e-03,
       -2.57219700e-03, 6.58582896e-03, -1.59482714e-02, -9.46507603e-03,
       -2.72184378e-03, 1.82941463e-02, 1.73352379e-02, 5.78152807e-03,
       2.10152715e-02, 9.54047218e-03, 1.92711893e-02, 9.25274286e-03,
       1.03823319e-02, 8.40831548e-03, 5.42496750e-03, -2.06690328e-03,
       -9.18233767e-03, 1.07681304e-02, 1.81970850e-03, 1.48171848e-02,
       3.33909132e-03, -2.05739005e-03, 9.23073944e-03, -1.51861715e-03,
       -5.69815515e-03, -8.39344878e-03, -7.68506667e-03, 2.95970333e-03,
       9.35857929e-03, -1.14447931e-02, 1.68366882e-03, 4.81600733e-03,
       -4.17743716e-03, -8.13852996e-03, -1.70617681e-02,
       -2.23604105e-02, -9.59435292e-03, 1.85160544e-02, 5.78121841e-03,
       1.87763274e-02, 1.20148296e-02, -2.58452399e-03, -6.88537816e-03,
       -9.07102227e-03, -4.72742645e-03, -2.77738378e-04, 1.03910994e-02,
       -5.42598963e-03, 4.05025342e-03, 1.36108426e-02, 7.44919584e-04,
       -8.34481139e-03, -1.45764472e-02, -1.06586376e-02, 5.96886128e-03,
       2.01507285e-02, -3.32925655e-03, 1.75544005e-02, 2.69777216e-02,
       -9.19430517e-03, -4.89806850e-03, -7.11522344e-03,
       -9.90478322e-03, -1.38298394e-02, 9.75339487e-03, 3.44300200e-03,
       9.72924661e-03, 7.15610292e-03, -6.97018579e-04, -7.58019648e-03,
       -1.00708427e-03, 4.99206968e-03, -1.07237510e-02, -1.48757380e-02,
       -1.75122768e-02, 4.28816915e-04, 8.09352752e-03, -1.50439458e-03,
       -2.56974809e-03, -8.55931640e-03, 1.21522800e-03, 1.05232848e-02,
       1.81857944e-02, -4.91828611e-03, 1.54493637e-02, 1.61192734e-02,
       5.46656409e-03, 1.42372947e-03, -1.57144330e-02, 1.99638959e-03,
       5.75570390e-03, -6.09276304e-03, -1.70378517e-02, 7.57684419e-03,
       7.17263296e-03, -6.47895178e-03, -2.51312624e-03, 7.58640293e-04,
       3.35923309e-04, -8.23108759e-03, -6.18909579e-03, -1.96412411e-02,
       4.95610991e-03, 5.83054684e-03, -8.91272631e-03, 1.38879307e-02,
       1.39731895e-02, 8.66754260e-03, -9.03828535e-03, 6.92054909e-03,
       -1.50833726e-02, 3.28920945e-03, -6.63390849e-03, 1.88302565e-02,
       1.02881119e-02, -9.79323499e-03, -1.58672570e-03, -1.87175802e-03,
       -4.14034445e-03, -1.65126082e-02, 2.37095403e-03, 1.38680832e-02,
       1.53244799e-02, 2.82084588e-02, 1.06828399e-02, -1.29680440e-04,
       -1.81550402e-02, 5.24611119e-03, -1.20617710e-02, -3.15326732e-03,
       2.44772434e-03, -3.84443160e-03, 5.80538483e-03, -4.22749389e-03,
       -2.11483589e-03, -1.54554220e-02, 3.21368175e-03, -1.86194144e-02,
       -6.37332618e-04, 3.29858012e-04, 6.64733863e-03, -2.96273339e-03,
       -9.14596766e-03, 1.68401860e-02, 3.97016946e-03, 4.54209698e-03,
       -1.88977588e-02, 9.18013335e-04, 1.22698490e-02, 1.37353269e-02,
       2.37524528e-02, -1.90755457e-03, -9.28947516e-03, -1.64567325e-02,
       9.49166366e-04, -2.25747488e-02, -4.34585474e-03, 2.74708355e-03,
       -1.34543472e-04, 6.64721150e-03, -4.81179776e-03, 1.28384493e-02,
       6.73437817e-03, -1.92731526e-03, -2.62608510e-02, -7.54372450e-03,
       3.93919647e-04, 3.62212048e-03, -1.07604708e-03, -8.56211968e-03,
       6.91822032e-03, 3.55378957e-03, 1.19353132e-02, -4.23035398e-03,
       9.60802019e-04, 2.09442340e-03, -2.29309639e-03, 3.98281682e-03,
       -6.55705296e-03, 1.06098130e-02, 8.14728718e-03, 2.33876705e-03,
       -1.44770602e-02, -8.46696366e-03, -1.49491932e-02,
       -3.49378446e-04, 2.37025763e-03, 1.91338733e-03, 1.80635937e-02,
       6.45846920e-03, -1.88658503e-03, -1.80205852e-02, -3.41875036e-03,
       -1.27908907e-05, -1.43747765e-03, 1.10200485e-02, 1.23156011e-02,
       3.05127073e-02, 9.12515353e-03, 3.82665708e-03, -2.80097518e-02,
       -2.43072286e-02, -1.44148059e-02, 1.83267565e-03, 5.01211453e-03,
       -4.14011301e-03, 1.10776387e-02, 5.97563898e-03, -2.00237916e-03,
       -1.53025957e-02, -4.07487329e-04, -3.24082584e-03, 1.26683656e-02,
       2.15518218e-03, -2.09907200e-02, -1.03251562e-02, -1.11280754e-02,
       -2.38455064e-03, -1.45999854e-03, 2.03263257e-02, 1.86828095e-02,
       6.71810796e-03, 1.38251996e-02, 1.33880051e-02, 2.21403800e-02,
       1.09175202e-02, 7.51122134e-03, -1.58352647e-02, -8.37252382e-03,
       -5.63071854e-03, 1.57340802e-02, 4.69618849e-03, -2.51007412e-04,
       3.64594813e-03, -5.77867962e-03, 2.10934901e-03, -2.02272274e-03,
       7.62198400e-03, 6.83848048e-03, 1.20274341e-02, 1.03554195e-02,
       -4.84217284e-03, 6.71204971e-03, -3.63912247e-03, 8.00335128e-03,
       7.72737525e-03, 1.44294323e-02, 7.68632442e-03, -1.31498987e-03,
       -9.81291849e-03, -2.28341073e-02, -3.71109624e-03,
       -1.96008626e-02, -3.89342720e-04, -6.21949648e-03, 4.93387831e-03,
       2.11376767e-03, 5.90354437e-03, -7.34145101e-03, -2.24952046e-02,
       -7.81381316e-03, 3.54695832e-03, 2.09255163e-02, 1.56037034e-02,
       2.68802997e-02, 2.42911391e-02, 8.45528860e-03, -7.24855158e-03,
       -2.00500637e-02, -1.00147156e-02, -3.82948667e-02,
       -6.61650265e-04, 2.92229233e-03, 2.60878317e-02, 2.11575832e-02,
       -2.49001710e-03, -5.37492847e-03, -1.58725996e-02,
       -1.32445747e-03, -6.78976299e-03, 6.64407667e-03, -3.76709201e-03,
       9.30486014e-04, 4.55616100e-04, -2.69376347e-03, -5.82823157e-03,
       -1.23963943e-02, 4.63499036e-03, 4.75466624e-03, 4.79508797e-03,
       -1.18800774e-02, -8.25286284e-03, 1.00375852e-03, 1.00877779e-02,
       1.28917182e-02, -2.62700277e-03, 5.74362790e-03, -7.07973773e-03,
       6.97645824e-03, 3.69676459e-03, 1.41026350e-02, 1.40040424e-02,
       6.05834182e-03, 5.61025692e-03, 1.16107683e-03, 1.49846543e-02,
       1.41437892e-02, 1.70416161e-02, -1.08351617e-03, -6.66148216e-03,
       -2.13536364e-03, -3.31149390e-03, -7.97072705e-03,
       -1.14397649e-02, 5.38162468e-03, 2.34159641e-03, 8.06652289e-03,
       -1.27532817e-02, -2.75375065e-03, -3.32477642e-03,
       -4.04805457e-03, 7.36006914e-05, -1.54257491e-02, -2.60503357e-03,
       1.86855055e-03, -8.02241545e-03, -2.50567943e-02, -3.22464667e-03,
       -5.44200093e-03, 1.69999446e-04, -5.60449669e-03, -1.03406515e-02,
       -3.55568877e-03, 6.74640178e-04, 1.90098919e-02, 8.31747544e-04,
       2.11359235e-03, 5.30748861e-03, 1.60227972e-03, -1.31284343e-02,
       -1.37441922e-02, -2.16184510e-03, -3.62487254e-03, 1.89991703e-03,
       -1.52037516e-02, 1.18106939e-02, 1.90896168e-02, 6.72892295e-03,
       8.79737607e-04, -1.19462823e-02, 2.67109461e-03, 1.81763317e-03,
       -9.09542665e-03, -1.74504891e-02, -2.83428258e-03, 4.68961895e-03,
       7.67690176e-03, 2.31385441e-03, -1.21121760e-02, -5.22285840e-03,
       -1.06241452e-02, 5.59095817e-04, -2.66069849e-03, -5.16238064e-03,
       -2.45657004e-03, 5.26486617e-03, -1.63326468e-02, -4.78933752e-03,
       1.57519188e-02, 8.77555087e-03, -5.45630646e-05, -9.65974387e-03,
       5.58046484e-03, 2.61731334e-02, 5.63742267e-03, -5.29728923e-03,
       -1.14902919e-02, 1.97706022e-03, -1.60804705e-03, 1.57626753e-03,
       6.77028345e-03, -6.11419417e-03, 8.43130518e-03, 5.13236411e-03,
       -1.32510439e-03, -2.52579469e-02, -1.06275175e-02,
       -2.17433646e-03, 4.03894437e-03, -9.79030319e-03, -5.02529694e-03,
       -8.44481960e-03, -6.16414053e-03, -3.31075164e-03,
       -1.43635347e-02, 1.25061655e-02, 1.46298520e-02, -8.93506629e-04,
       -2.06588265e-02, -1.86666362e-02, -1.32727241e-02, 1.14653222e-02,
       6.26559742e-03, -1.67743899e-02, -1.47065986e-03, 1.68609922e-03,
       2.66050780e-03, 1.32042880e-03, -9.50578507e-03, -4.39488608e-03,
       -2.34318967e-03, -2.57236697e-03, -1.90897100e-02, 1.59964319e-02,
       3.08741910e-05, 6.04219735e-03, -7.50167249e-03, -6.65455451e-03,
       -1.00286128e-02, -8.60543828e-03, -1.35494891e-04, 4.56283509e-04,
       2.20339186e-02, 1.33442655e-02, 7.28612940e-04, -1.40485475e-02,
       -1.23385889e-02, -1.31019531e-02, -9.65055637e-03, 5.00918180e-03,
       9.16822907e-03, 2.11967919e-02, 1.26372827e-02, 6.92600757e-03,
       -1.48515310e-02, -1.32709360e-02, -2.00853925e-02, 5.86265000e-03,
       2.00333467e-04, -1.12153552e-02, 1.39367664e-02, 1.13911191e-02,
       8.27288814e-03, -6.26004022e-03, -5.30454563e-03, 1.45221347e-04,
       -7.18319556e-03, -1.83390942e-03, 7.54882873e-04, 6.16919901e-03,
       8.40750430e-03, 3.70475580e-03, -1.14426611e-03, -4.10561264e-03,
       -1.39245149e-02, -4.16151946e-03, 1.26542794e-02, 9.37237777e-03,
       1.65371150e-02, 5.97633980e-03, 4.85609286e-03, -1.88204963e-02,
       -1.38567416e-02, -1.20468922e-02, 1.37935043e-03, 4.11130302e-03,
       6.56061247e-03, 1.10033285e-02, 4.29883692e-03, 6.02488546e-03,
       -1.21173728e-02, -9.60680842e-03, -1.97029673e-03,
       -9.93810780e-03, 1.89341034e-03, 7.75796268e-03, 1.00295953e-02,
       -6.63187995e-04, 2.34809937e-03, -1.08422553e-02, -1.25582879e-02,
       -1.17202243e-02, 2.13416317e-03, 1.15637807e-02, 1.82595942e-02,
       6.66998141e-03, -3.40341532e-04, 7.72525836e-03, -1.50068374e-02,
       -1.45616522e-02, 3.40717263e-03, -3.95561568e-03, -9.04749427e-03,
       -1.28985383e-02, 4.82759858e-03, 1.19468244e-02, 2.44469400e-02,
       4.84268181e-03, 1.14789745e-02, 8.56120139e-03, 5.50183747e-03,
       -2.46671634e-03, -5.96217951e-03, 6.08673960e-04, -2.24969685e-02,
       -3.81105090e-03, -7.89640192e-03, 1.29146650e-02, 2.79636797e-03,
       -1.15742888e-02, -5.94903436e-03, -8.42094421e-03, 1.25736343e-02,
       1.83096267e-02, 1.17448792e-02, -1.60793141e-02, 1.91783241e-03,
       -5.67755988e-03, -3.05314502e-03, 7.82791525e-03, 1.01012494e-02,
       9.45566222e-03, -5.39812818e-03, -5.19689464e-04, -2.01792065e-02,
       -5.83144976e-03, -8.46040435e-03, -5.78221958e-03, 5.10221696e-04,
       -2.74181226e-03, 2.53693713e-03, -7.94076361e-03, 8.09095986e-03,
       -1.80796138e-03, 3.38747934e-03, -1.25879562e-02, -4.46693460e-03,
       -2.16491288e-03, 2.23497208e-03, 4.05816687e-03, -1.21498702e-03,
       1.43740363e-02, -6.98525179e-03, -1.22632482e-03, -1.04671922e-02,
       -3.20669683e-03, 1.58646274e-02, -1.02092675e-03, 5.02633583e-03,
       -7.56458566e-03, 1.12509355e-02, -8.52555968e-03, -1.70037197e-03,
       -1.08253388e-02, 5.25041787e-06, -2.21410813e-03, -3.54268216e-03,
       7.00133853e-03, -2.55239266e-03, 1.95525214e-02, -9.14022885e-03,
       7.46991578e-03, -8.18855409e-03, 4.74207452e-04, -8.16280954e-03,
       -3.68552795e-03, -2.51641432e-05, 1.37702236e-03, 2.22379137e-02,
       1.40925508e-03, 8.12081248e-03, 3.20139900e-03, 6.28106436e-03,
       -2.04386227e-02, -1.42098600e-02, -7.50496751e-03,
       -1.05760805e-02, 9.60886199e-03, -1.07605075e-02, 1.37823559e-02,
       2.11074296e-02, -2.98192794e-03, -1.23985102e-02, -1.53865814e-02,
       2.95594940e-03, 9.56075545e-03, 2.52540223e-02, 1.16260536e-03,
       6.15865877e-03, -2.16510729e-03, -2.43304545e-04, -1.03575196e-02,
       -1.96819492e-02, -8.55307281e-03, -1.34105328e-02, 8.92672036e-03,
       -1.28401294e-02, 3.22608068e-03, 1.62313953e-02, 4.19061817e-03,
       -2.10303944e-02, -7.91940186e-03, 2.55179708e-03, 5.38128486e-04,
       3.04935477e-03, -5.06790681e-03, 6.82842080e-03, 1.74860209e-02,
       1.07594614e-03, -7.89611880e-03, -9.90104582e-03, 3.41635104e-03,
       -3.35396570e-03, -3.48783936e-03, -3.41572636e-03,
       -7.48583255e-03, 7.31232530e-03, 4.28141095e-03, -9.97850019e-03,
       -6.34336472e-03, -5.34608215e-03, -6.64292695e-03,
       -2.85536726e-03, -1.44725814e-02, -2.08338533e-04, 1.79089271e-02,
       1.02113197e-02, -4.36728122e-03, -7.66643835e-03, -1.68808980e-03,
       6.82656839e-03, -4.11423994e-03, -9.81162954e-03, -1.09065343e-02,
       1.11334128e-02, 6.87324349e-03, 1.44122797e-03, -1.75602809e-02,
       -3.65892542e-04, -8.87919590e-03, -2.09013303e-03,
       -7.64399394e-03, -6.17996510e-03, 4.56318259e-03, -7.76068633e-03,
       -5.87375741e-03, -1.74578745e-02, 7.68331951e-03, -1.47310522e-04,
       1.39932549e-02, -5.64594148e-03, -2.48716748e-03, -1.56049279e-03,
       1.86201632e-02, -5.07659651e-03, -2.06909496e-02, -1.39102456e-03,
       1.04499795e-03, 4.32699133e-04, -4.03700862e-03, -7.20840134e-03,
       1.00301132e-02, -6.32660650e-03, -1.57688614e-02, -1.83083620e-02,
       5.00942674e-03, 6.02270244e-03, 1.41405901e-02, -9.00079869e-03,
       -7.96298683e-03, 2.02920404e-03, -7.23451492e-04, -1.02541700e-03,
       -1.29519785e-02, 2.81225005e-03, 7.39960326e-03, 2.19334308e-02,
       4.39794455e-03, 8.94767791e-03, 2.32568826e-03, -2.96622887e-03,
       -3.40181892e-03, -7.96972588e-03, 3.15721706e-03, 1.60030031e-03,
       7.94854574e-03, 1.20922737e-02, 5.71850361e-03, -5.53360302e-03,
       -1.20660253e-02, -1.45741301e-02, -1.12026259e-02, 1.44776364e-03,
       1.24063129e-02, 1.40231503e-02, -1.75686204e-03, 3.89327016e-03,
       6.79418631e-03, -9.96199250e-03, -1.10625383e-02, -6.32839790e-03,
       2.96442816e-03, -1.28478173e-03, -8.96947822e-05, 8.17095861e-04,
       1.47214989e-04, -9.69453901e-03, -3.46751139e-03, 2.01448705e-03,
       9.63099126e-04, 2.95925117e-03, -6.90105464e-03, 6.04341319e-03,
       6.70560822e-03, 4.02881345e-03, 1.94116219e-04, -1.86104712e-03,
       1.24232993e-02, 3.89492186e-03, -1.59992825e-03, -9.82453022e-03,
       4.96028550e-03, -1.07538141e-02, -1.49199145e-03, 6.79064030e-03,
       -9.19716805e-03, 2.27751140e-03, 4.09790641e-03, -5.83998859e-03,
       -6.99078012e-03, -3.35983816e-03, 2.96774320e-03, -1.39651401e-03,
       1.03463279e-03, -2.69536022e-03, 4.23448910e-05, -3.17378622e-03,
       -4.73020272e-03, -8.51893798e-03, -7.94372521e-03,
       -1.00913495e-02, 1.87814832e-04, 1.33837890e-02, -7.74081218e-06,
       1.52825436e-03, -3.01571982e-03, 1.40785612e-02, 2.52052583e-02,
       6.08373061e-03, -1.58204734e-02, -3.50358663e-03, 4.22712322e-03,
       1.06749982e-02, 2.02544183e-02, 5.72404219e-03, 9.46723763e-03,
       1.19436847e-03, -3.59203131e-03, -1.63887888e-02, -6.14040717e-03,
       1.13018993e-02, 1.94951252e-03, -7.64244935e-03, 2.15598568e-03,
       1.80844497e-02, 7.34121306e-03, -2.60243821e-03, -1.42336832e-02,
       -9.56494082e-03, 4.94460110e-03, 1.11444164e-02, 1.29117770e-03,
       5.44930622e-03, 1.89541467e-02, -5.48415165e-03, -1.04572522e-02,
       -6.76558586e-03, -6.48793951e-03, 1.27687706e-02, 2.19328497e-02,
       1.72860585e-02, -6.66526565e-03, 6.66007493e-03, -6.05434226e-03,
       2.97659636e-03, -2.10817065e-03, 7.56163057e-03, 1.77761000e-02,
       2.14184672e-02, 9.68811393e-04, -1.96891893e-02, 1.11280067e-03,
       7.39223324e-03, 6.30500726e-03, -4.25798725e-03, 2.09330600e-02,
       1.28019899e-02, 2.45878510e-02, -2.49161688e-03, -1.67731605e-02,
       4.25120146e-04, -1.24226483e-02, -6.56778179e-03, 1.27306313e-03,
       3.60794226e-03, 1.99404843e-02, 1.73768364e-02, -8.50477815e-03,
       -3.05220131e-02, -1.19943209e-02, -1.41266473e-02,
       -8.81736353e-03, 9.19496466e-04, 1.25101795e-02, 2.29232181e-02,
       1.50926365e-02, 1.16214762e-03, -1.62046496e-02, -7.57955480e-04,
       1.38778854e-02, 1.65446252e-02, 3.18184402e-03, 1.37768388e-02,
       1.70935839e-02, 1.08729098e-02, 5.55096706e-03, -1.41946720e-02,
       -2.68327561e-03, -1.48784625e-03, 6.88376976e-03, -1.05290515e-02,
       5.64301107e-03, 2.47347634e-02, 1.59444530e-02, -5.93330106e-03,
       -2.13866625e-02, -5.94413280e-03, -1.41954133e-02, 8.91698655e-05,
       -6.78142579e-03, 9.63075925e-03, 2.34895274e-02, 1.34244990e-02,
       -8.57654260e-04, -1.00436937e-02, -2.86260410e-03, 3.38077592e-03,
       2.10995815e-04, -1.47381052e-02, 1.66389789e-03, 2.56516170e-02,
       8.12213589e-03, 1.03924051e-02, -2.78104702e-03, -6.25405088e-03,
       4.33617318e-03, -5.40537108e-03, -1.59090385e-02, -1.37014082e-03,
       1.93325151e-02, 1.23613076e-02, 1.22825624e-02, 5.06042130e-03,
       -5.29188244e-03, 9.06317681e-03, -9.25496034e-03, -1.42470067e-02,
       -7.20092189e-03, 1.35047259e-02, 3.26865190e-03, -1.35358900e-03,
       -9.54338466e-04, -1.19090481e-02, 1.97680369e-02, 1.21215722e-02,
       -8.65333807e-03, 3.23589076e-03, 1.73491817e-02, 1.93181611e-03,
       6.72106072e-03, 9.05130804e-03, -8.21658410e-03, 1.09056814e-03,
       8.21180549e-03, -6.26752339e-03, -2.14909762e-03, -3.95672105e-04,
       2.54548509e-02, 1.00139892e-02, -3.09509900e-03, 2.07938044e-03,
       7.89517816e-03, -7.26939272e-03, -8.52144975e-03, -9.87092033e-03,
       1.09741697e-02, 5.36591932e-03, -4.05249093e-03, -6.66243257e-03,
       1.06623191e-02, -6.64255768e-03, -1.36458070e-03, -1.23988241e-02,
       -8.50698352e-03, 6.63872994e-03, 1.97284557e-02, 7.04663619e-03,
       1.11815957e-02, 8.98726564e-03, 7.02613546e-03, -7.17111537e-03,
       -1.75163653e-02, -2.27963552e-02, 1.61414128e-03, 6.36235671e-03,
       6.01497386e-03, 8.74183979e-03, 1.35395043e-02, 3.79385427e-03,
       -8.71754810e-03, -2.08104458e-02, -2.00150721e-02, 1.98737462e-03,
       -3.49828112e-03, -1.11490143e-02, -1.77448348e-03, 2.10165256e-03,
       6.10590680e-03, 1.02541894e-02, -2.63551786e-03, 6.92838454e-04,
       2.82068690e-03, 3.21507966e-03, -1.16333191e-03, 8.71212874e-03,
       1.62983534e-03, 6.49462314e-03, -6.53745048e-03, -6.22366555e-03,
       1.97720458e-03, -1.50594686e-03, -7.44250696e-03, 4.76899743e-03,
       8.03615432e-03, 2.62366189e-03, 1.84317096e-03, 5.20175556e-03,
       -3.21563683e-03, -4.35618276e-04, -2.08127080e-03, 6.12010481e-03,
       6.15979498e-03, 1.24923252e-02, -1.10070724e-02, -3.25727719e-03,
       -3.75733548e-03, -5.81087591e-03, 7.91259855e-03, 8.54748115e-03,
       -5.33688627e-03, 2.23634252e-03, 9.17711388e-03, -4.63107042e-03,
       -4.54962905e-03, -1.15897767e-02, -1.75569183e-03, 5.82831446e-04,
       -1.89965707e-03, -2.37465813e-03, 5.86341135e-03, 9.68984328e-03,
       9.13101539e-04, -1.53419757e-02, -9.36261564e-03, -3.16379708e-03,
       3.80408764e-03, 6.79708878e-03, 1.03113130e-02, 1.14902649e-02,
       7.75193656e-03, -1.39007559e-02, -7.45534012e-03, -6.70500239e-03,
       6.47994271e-03, 1.35706821e-02, 1.14883380e-02, 7.39909103e-03,
       1.28992216e-03, -3.02195200e-03, -1.34887639e-02, -1.45162093e-02,
       -5.52817946e-03, 1.64666995e-02, 2.05826145e-02, 7.21758371e-03,
       1.73296197e-04, -1.18949991e-02, 2.80874618e-03, 1.40697937e-02,
       1.53205115e-02, 3.17943096e-03, 2.18251182e-04, -5.63827436e-03,
       9.19090305e-03, 1.24156580e-03, -5.23843383e-03, 4.90029762e-03,
       2.06981897e-02, 3.39379953e-03, 1.45995640e-03, 7.18872575e-03,
       2.46026809e-03, 1.41431196e-02, -1.30091365e-02, -6.84534991e-03,
       6.21812325e-03, 7.67036900e-03, -9.15384153e-04, -1.09516568e-02,
       -1.31787909e-02, 1.15023146e-03, 1.07761268e-02, -4.85051936e-03,
       -5.81801822e-03, 1.04365427e-04, 1.32333376e-02, -7.88020669e-04,
       -8.28213803e-03, 3.78196943e-03, 1.95808113e-02, 1.86076742e-02,
       7.10491184e-03, -6.38224604e-03, -1.06682610e-02, 5.63186966e-03,
       -1.58556574e-03, 4.85269539e-03, 1.00768032e-02, 1.12367943e-02,
       1.61867533e-02, 6.59068627e-03, -2.02894211e-02, -2.52149031e-02,
       -3.93631356e-03, -3.16466414e-03, 1.20745385e-02, 2.20370889e-02,
       1.37280440e-02, 1.48596279e-02, -4.26039472e-03, -6.84349611e-03,
       -1.04224235e-02, 1.49189476e-02, 7.83508760e-04, 1.14864996e-02,
       1.26883779e-02, 1.72153171e-02, 1.20073184e-02, 1.28405751e-03,
       -1.75503530e-02, -2.41280831e-02, 5.08765574e-04, 5.79056097e-03,
       2.70663891e-02, 2.64646821e-02, 1.83339640e-02, 1.42496312e-02,
       1.23654148e-02, -1.62311513e-02, -1.92285590e-02, 1.17880467e-03,
       -9.05033015e-03, 1.07545629e-02, 6.57065213e-03, 5.05292369e-03,
       1.52868489e-02, 1.26783242e-02, -8.53206124e-03, -2.81427917e-03,
       -3.75949172e-03, 6.16160594e-03, 1.71871670e-03, -1.43835573e-02,
       1.82158896e-03, 1.60257667e-02, 1.67377517e-02, -1.03343893e-02,
       -1.62019562e-02, -3.53092724e-03, -5.31948823e-03, 1.68538261e-02,
       1.49288494e-02, 8.95160530e-03, 1.93802733e-02, 7.81146018e-03,
       -6.03780430e-03, 1.07156159e-03, 2.97235470e-04, 1.89916507e-04,
       1.24693904e-02, -1.13855139e-03, 1.21084671e-03, 5.16718207e-03,
       1.96135370e-03, -6.18262356e-03, -3.35301622e-03, -1.12704448e-02,
       2.23506279e-02, 8.59959517e-03, -7.53199076e-03, -5.40902838e-03,
       9.47540440e-03, 1.08427983e-02, 5.90072712e-03, 8.60445667e-03,
       -8.79093166e-03, -3.31535027e-03, 8.02796427e-03, -4.01759101e-03,
       -2.38927058e-03, 4.35888069e-03, 2.48900917e-03, -2.76012870e-04,
       4.13521146e-03, 5.38826361e-03, 1.43717919e-02, 8.16083699e-03,
       -9.87890176e-03, -4.22787806e-03, 1.17831873e-02, 1.13158626e-02,
       1.18644005e-02, 9.68529191e-03, 4.23440337e-03, -3.64101259e-03,
       -4.51606140e-03, -1.48369763e-02, -4.88727167e-03, 5.57934260e-03,
       1.85042992e-02, 5.54162730e-03, 9.32899676e-03, -1.51734706e-03,
       -8.26421380e-03, -6.30741613e-03, -1.01862298e-02,
       -1.22878905e-02, 6.28097774e-03, 1.67260617e-02, 1.30514801e-02,
       8.36104527e-03, 9.45486315e-03, -1.90375547e-04, -8.37985147e-03,
       -2.97246464e-02, -2.15325151e-02, 5.95507259e-03, 1.45345544e-02,
       1.08151799e-02, 9.85010248e-03, 2.91035464e-03, -1.39118209e-02,
       -1.12268431e-02, -1.21538024e-02, -1.01183960e-02, 9.92706884e-03,
       1.56750530e-02, 1.44523047e-02, 8.25431012e-03, 1.32622393e-02,
       -1.95546122e-03, -5.17718447e-03, -2.20940392e-02,
       -1.22512281e-02, 1.38207031e-02, -5.74918231e-04, 8.53148196e-03,
       1.35565584e-03, 6.75813016e-03, 6.99507073e-03, -8.85025773e-04,
       -1.67162251e-02, -7.61501538e-03, -1.73518714e-03, 1.50210923e-03,
       -3.93195637e-03, -9.58949607e-03, -1.36460653e-02, 1.13320583e-03,
       -2.04502675e-03, -3.75768309e-03, 7.28127640e-03, 7.43103912e-03,
       1.60442237e-02, 1.46650663e-02, 3.47736105e-03, 1.63906310e-02,
       5.14102262e-03, -7.85255397e-04, -2.13205703e-02, -1.21370638e-02,
       3.79794370e-03, 1.71237793e-02, 8.66211113e-03, 3.30649229e-04,
       1.43077616e-02, 1.86548277e-03, 1.05525949e-03, -1.31453900e-02,
       -2.25487817e-03, 1.06837414e-02, -4.90554841e-04, 2.57430994e-03,
       -6.01340504e-03, -9.17640328e-03, -3.00641335e-03,
       -5.24546066e-03, -7.76690431e-03, 8.80934019e-03, 8.41405336e-03,
       -7.07665633e-04, -4.85079922e-03, -8.98792967e-03,
       -4.80940659e-03, -2.93225073e-03, -1.62552148e-02,
       -2.01893062e-03, 9.39341448e-03, 1.03689476e-04, 1.18407896e-02,
       6.20749872e-03, 7.44205760e-03, 1.57085564e-02, -4.27621562e-05,
       -6.08636299e-04, -1.64672267e-02, -4.80215240e-05, 1.27262343e-02,
       7.70949107e-03, 1.86083019e-02, 1.33140823e-02, 1.14145745e-02,
       6.15435187e-03, -1.64871532e-02, -1.17439423e-02, 1.69807157e-04,
       1.12201180e-02, -9.67827916e-01 ]
